<?xml version="1.0"?>
<opencv_storage>
<cascade>
  <stageType>BOOST</stageType>
  <featureType>HAAR</featureType>
  <height>40</height>
  <width>40</width>
  <stageParams>
    <boostType>GAB</boostType>
    <minHitRate>9.9500000476837158e-01</minHitRate>
    <maxFalseAlarm>5.0000000000000000e-01</maxFalseAlarm>
    <weightTrimRate>9.4999999999999996e-01</weightTrimRate>
    <maxDepth>1</maxDepth>
    <maxWeakCount>100</maxWeakCount></stageParams>
  <featureParams>
    <maxCatCount>0</maxCatCount>
    <featSize>1</featSize>
    <mode>BASIC</mode></featureParams>
  <stageNum>2</stageNum>
  <stages>
    <!-- stage 0 -->
    <_>
      <maxWeakCount>9</maxWeakCount>
      <stageThreshold>-1.1378113031387329e+00</stageThreshold>
      <weakClassifiers>
        <_>
          <internalNodes>
            0 -1 13 2.7819487731903791e-03</internalNodes>
          <leafValues>
            -5.2631580829620361e-01 6.9400632381439209e-01</leafValues></_>
        <_>
          <internalNodes>
            0 -1 5 5.1306718960404396e-03</internalNodes>
          <leafValues>
            -4.0689456462860107e-01 7.2509324550628662e-01</leafValues></_>
        <_>
          <internalNodes>
            0 -1 6 -3.2881526276469231e-03</internalNodes>
          <leafValues>
            6.0513246059417725e-01 -2.9786577820777893e-01</leafValues></_>
        <_>
          <internalNodes>
            0 -1 10 -6.6699697636067867e-03</internalNodes>
          <leafValues>
            6.0525143146514893e-01 -2.7841848134994507e-01</leafValues></_>
        <_>
          <internalNodes>
            0 -1 19 6.2418896704912186e-03</internalNodes>
          <leafValues>
            -2.5187325477600098e-01 6.7391306161880493e-01</leafValues></_>
        <_>
          <internalNodes>
            0 -1 18 7.2072437033057213e-03</internalNodes>
          <leafValues>
            -2.7040421962738037e-01 5.0005763769149780e-01</leafValues></_>
        <_>
          <internalNodes>
            0 -1 17 -1.4326884411275387e-03</internalNodes>
          <leafValues>
            3.7382709980010986e-01 -3.5880082845687866e-01</leafValues></_>
        <_>
          <internalNodes>
            0 -1 2 -1.0579952504485846e-03</internalNodes>
          <leafValues>
            2.8047835826873779e-01 -4.2176544666290283e-01</leafValues></_>
        <_>
          <internalNodes>
            0 -1 11 4.4370647519826889e-03</internalNodes>
          <leafValues>
            -2.4803888797760010e-01 5.7065361738204956e-01</leafValues></_></weakClassifiers></_>
    <!-- stage 1 -->
    <_>
      <maxWeakCount>12</maxWeakCount>
      <stageThreshold>-9.5703029632568359e-01</stageThreshold>
      <weakClassifiers>
        <_>
          <internalNodes>
            0 -1 8 2.1131767425686121e-03</internalNodes>
          <leafValues>
            -1.0598413646221161e-01 7.9741048812866211e-01</leafValues></_>
        <_>
          <internalNodes>
            0 -1 9 1.6268503386527300e-03</internalNodes>
          <leafValues>
            -4.9654209613800049e-01 4.1449037194252014e-01</leafValues></_>
        <_>
          <internalNodes>
            0 -1 0 2.4168014526367188e-02</internalNodes>
          <leafValues>
            -2.9388710856437683e-01 7.0943641662597656e-01</leafValues></_>
        <_>
          <internalNodes>
            0 -1 14 -1.4870840124785900e-02</internalNodes>
          <leafValues>
            6.0074299573898315e-01 -2.4695676565170288e-01</leafValues></_>
        <_>
          <internalNodes>
            0 -1 20 1.0747745633125305e-02</internalNodes>
          <leafValues>
            -1.3645346462726593e-01 6.4471495151519775e-01</leafValues></_>
        <_>
          <internalNodes>
            0 -1 1 -3.1422659754753113e-02</internalNodes>
          <leafValues>
            6.6027069091796875e-01 -1.6864162683486938e-01</leafValues></_>
        <_>
          <internalNodes>
            0 -1 3 1.0763080790638924e-02</internalNodes>
          <leafValues>
            -2.5378155708312988e-01 4.6269625425338745e-01</leafValues></_>
        <_>
          <internalNodes>
            0 -1 16 -3.0703647062182426e-03</internalNodes>
          <leafValues>
            5.9101611375808716e-01 -1.8036530911922455e-01</leafValues></_>
        <_>
          <internalNodes>
            0 -1 12 -1.9237706437706947e-03</internalNodes>
          <leafValues>
            -8.8062417507171631e-01 1.4566153287887573e-01</leafValues></_>
        <_>
          <internalNodes>
            0 -1 4 -4.2910058982670307e-03</internalNodes>
          <leafValues>
            3.6052688956260681e-01 -3.0508178472518921e-01</leafValues></_>
        <_>
          <internalNodes>
            0 -1 7 2.1594834979623556e-03</internalNodes>
          <leafValues>
            -2.1779400110244751e-01 4.3340978026390076e-01</leafValues></_>
        <_>
          <internalNodes>
            0 -1 15 -1.0785093531012535e-02</internalNodes>
          <leafValues>
            6.1488145589828491e-01 -1.4398105442523956e-01</leafValues></_></weakClassifiers></_></stages>
  <features>
    <_>
      <rects>
        <_>
          1 8 18 5 -1.</_>
        <_>
          7 8 6 5 3.</_></rects>
      <tilted>0</tilted></_>
    <_>
      <rects>
        <_>
          5 2 18 12 -1.</_>
        <_>
          5 2 9 6 2.</_>
        <_>
          14 8 9 6 2.</_></rects>
      <tilted>0</tilted></_>
    <_>
      <rects>
        <_>
          7 6 25 8 -1.</_>
        <_>
          7 10 25 4 2.</_></rects>
      <tilted>0</tilted></_>
    <_>
      <rects>
        <_>
          7 31 16 8 -1.</_>
        <_>
          7 31 8 4 2.</_>
        <_>
          15 35 8 4 2.</_></rects>
      <tilted>0</tilted></_>
    <_>
      <rects>
        <_>
          8 5 1 22 -1.</_>
        <_>
          8 16 1 11 2.</_></rects>
      <tilted>0</tilted></_>
    <_>
      <rects>
        <_>
          9 0 17 4 -1.</_>
        <_>
          9 2 17 2 2.</_></rects>
      <tilted>0</tilted></_>
    <_>
      <rects>
        <_>
          9 8 4 9 -1.</_>
        <_>
          11 8 2 9 2.</_></rects>
      <tilted>0</tilted></_>
    <_>
      <rects>
        <_>
          11 29 5 4 -1.</_>
        <_>
          11 31 5 2 2.</_></rects>
      <tilted>0</tilted></_>
    <_>
      <rects>
        <_>
          13 1 14 2 -1.</_>
        <_>
          13 2 14 1 2.</_></rects>
      <tilted>0</tilted></_>
    <_>
      <rects>
        <_>
          13 29 8 6 -1.</_>
        <_>
          13 32 8 3 2.</_></rects>
      <tilted>0</tilted></_>
    <_>
      <rects>
        <_>
          13 33 15 2 -1.</_>
        <_>
          18 33 5 2 3.</_></rects>
      <tilted>0</tilted></_>
    <_>
      <rects>
        <_>
          14 0 10 6 -1.</_>
        <_>
          14 0 5 3 2.</_>
        <_>
          19 3 5 3 2.</_></rects>
      <tilted>0</tilted></_>
    <_>
      <rects>
        <_>
          14 34 11 3 -1.</_>
        <_>
          14 35 11 1 3.</_></rects>
      <tilted>0</tilted></_>
    <_>
      <rects>
        <_>
          16 29 8 8 -1.</_>
        <_>
          16 33 8 4 2.</_></rects>
      <tilted>0</tilted></_>
    <_>
      <rects>
        <_>
          17 6 18 3 -1.</_>
        <_>
          23 6 6 3 3.</_></rects>
      <tilted>0</tilted></_>
    <_>
      <rects>
        <_>
          17 34 12 3 -1.</_>
        <_>
          21 34 4 3 3.</_></rects>
      <tilted>0</tilted></_>
    <_>
      <rects>
        <_>
          19 1 8 4 -1.</_>
        <_>
          19 1 4 2 2.</_>
        <_>
          23 3 4 2 2.</_></rects>
      <tilted>0</tilted></_>
    <_>
      <rects>
        <_>
          19 2 6 6 -1.</_>
        <_>
          19 5 6 3 2.</_></rects>
      <tilted>0</tilted></_>
    <_>
      <rects>
        <_>
          23 27 12 3 -1.</_>
        <_>
          29 27 6 3 2.</_></rects>
      <tilted>0</tilted></_>
    <_>
      <rects>
        <_>
          26 6 8 4 -1.</_>
        <_>
          30 6 4 4 2.</_></rects>
      <tilted>0</tilted></_>
    <_>
      <rects>
        <_>
          27 19 8 10 -1.</_>
        <_>
          27 19 4 5 2.</_>
        <_>
          31 24 4 5 2.</_></rects>
      <tilted>0</tilted></_></features></cascade>
</opencv_storage>
